<?xml version="1.0"?>
<opencv_storage>
<myhaar type_id="opencv-haar-classifier">
  <size>
    20 20</size>
  <stages>
    <_>
      <trees>
        <_>
          <_>
            <feature>
              <rects>
                <_>
                  5 4 10 12 -1.</_>
                <_>
                  5 8 10 4 3.</_></rects>
              <tilted>0</tilted></feature>
            <threshold>0.1151939034461975</threshold>
            <left_val>-0.8640226125717163</left_val>
            <right_val>0.7942702174186707</right_val></_></_>
        <_>
          <_>
            <feature>
              <rects>
                <_>
                  18 4 2 12 -1.</_>
                <_>
                  18 4 1 12 2.</_></rects>
              <tilted>0</tilted></feature>
            <threshold>6.2820040620863438e-003</threshold>
            <left_val>-0.4303514063358307</left_val>
            <right_val>0.4424344003200531</right_val></_></_>
        <_>
          <_>
            <feature>
              <rects>
                <_>
                  0 3 2 14 -1.</_>
                <_>
                  1 3 1 14 2.</_></rects>
              <tilted>0</tilted></feature>
            <threshold>0.0104342000558972</threshold>
            <left_val>-0.5620477199554443</left_val>
            <right_val>0.6135215163230896</right_val></_></_>
        <_>
          <_>
            <feature>
              <rects>
                <_>
                  8 7 4 4 -1.</_>
                <_>
                  8 9 4 2 2.</_></rects>
              <tilted>0</tilted></feature>
            <threshold>5.0874520093202591e-003</threshold>
            <left_val>-0.6640368103981018</left_val>
            <right_val>0.4094831049442291</right_val></_></_></trees>
      <stage_threshold>-1.4469389915466309</stage_threshold>
      <parent>-1</parent>
      <next>-1</next></_>
    <_>
      <trees>
        <_>
          <_>
            <feature>
              <rects>
                <_>
                  5 4 10 12 -1.</_>
                <_>
                  5 8 10 4 3.</_></rects>
              <tilted>0</tilted></feature>
            <threshold>0.1586198061704636</threshold>
            <left_val>-0.7301751971244812</left_val>
            <right_val>0.8011600971221924</right_val></_></_>
        <_>
          <_>
            <feature>
              <rects>
                <_>
                  3 18 14 2 -1.</_>
                <_>
                  3 19 14 1 2.</_></rects>
              <tilted>0</tilted></feature>
            <threshold>-7.1990638971328735e-003</threshold>
            <left_val>0.5763798952102661</left_val>
            <right_val>-0.5031939148902893</right_val></_></_>
        <_>
          <_>
            <feature>
              <rects>
                <_>
                  3 0 14 6 -1.</_>
                <_>
                  3 2 14 2 3.</_></rects>
              <tilted>0</tilted></feature>
            <threshold>0.0152660198509693</threshold>
            <left_val>-0.5995312929153442</left_val>
            <right_val>0.4768584966659546</right_val></_></_>
        <_>
          <_>
            <feature>
              <rects>
                <_>
                  9 7 4 6 -1.</_>
                <_>
                  9 9 4 2 3.</_></rects>
              <tilted>0</tilted></feature>
            <threshold>0.0235044900327921</threshold>
            <left_val>-0.4611031115055084</left_val>
            <right_val>0.4989737868309021</right_val></_></_>
        <_>
          <_>
            <feature>
              <rects>
                <_>
                  1 6 1 9 -1.</_>
                <_>
                  1 9 1 3 3.</_></rects>
              <tilted>0</tilted></feature>
            <threshold>-6.9795809686183929e-003</threshold>
            <left_val>0.5420209765434265</left_val>
            <right_val>-0.3998324871063232</right_val></_></_>
        <_>
          <_>
            <feature>
              <rects>
                <_>
                  8 8 4 6 -1.</_>
                <_>
                  8 10 4 2 3.</_></rects>
              <tilted>0</tilted></feature>
            <threshold>0.0337248407304287</threshold>
            <left_val>-0.3183878064155579</left_val>
            <right_val>0.6032345890998840</right_val></_></_></trees>
      <stage_threshold>-1.9326499700546265</stage_threshold>
      <parent>0</parent>
      <next>-1</next></_>
    <_>
      <trees>
        <_>
          <_>
            <feature>
              <rects>
                <_>
                  5 4 10 12 -1.</_>
                <_>
                  5 8 10 4 3.</_></rects>
              <tilted>0</tilted></feature>
            <threshold>0.1809044927358627</threshold>
            <left_val>-0.6198576092720032</left_val>
            <right_val>0.6609569787979126</right_val></_></_>
        <_>
          <_>
            <feature>
              <rects>
                <_>
                  3 0 14 6 -1.</_>
                <_>
                  3 2 14 2 3.</_></rects>
              <tilted>0</tilted></feature>
            <threshold>0.0227397195994854</threshold>
            <left_val>-0.5396913886070252</left_val>
            <right_val>0.4744062125682831</right_val></_></_>
        <_>
          <_>
            <feature>
              <rects>
                <_>
                  0 4 2 12 -1.</_>
                <_>
                  1 4 1 12 2.</_></rects>
              <tilted>0</tilted></feature>
            <threshold>8.1126531586050987e-003</threshold>
            <left_val>-0.5025557279586792</left_val>
            <right_val>0.3905754983425140</right_val></_></_>
        <_>
          <_>
            <feature>
              <rects>
                <_>
                  5 4 10 12 -1.</_>
                <_>
                  5 8 10 4 3.</_></rects>
              <tilted>0</tilted></feature>
            <threshold>0.0623925291001797</threshold>
            <left_val>-0.7803046703338623</left_val>
            <right_val>0.2571248114109039</right_val></_></_>
        <_>
          <_>
            <feature>
              <rects>
                <_>
                  5 17 10 3 -1.</_>
                <_>
                  5 18 10 1 3.</_></rects>
              <tilted>0</tilted></feature>
            <threshold>0.0108147095888853</threshold>
            <left_val>-0.4089449942111969</left_val>
            <right_val>0.5248556137084961</right_val></_></_>
        <_>
          <_>
            <feature>
              <rects>
                <_>
                  9 7 4 6 -1.</_>
                <_>
                  9 9 4 2 3.</_></rects>
              <tilted>0</tilted></feature>
            <threshold>0.0360021889209747</threshold>
            <left_val>-0.2823854088783264</left_val>
            <right_val>0.4524252116680145</right_val></_></_>
        <_>
          <_>
            <feature>
              <rects>
                <_>
                  1 6 1 9 -1.</_>
                <_>
                  1 9 1 3 3.</_></rects>
              <tilted>0</tilted></feature>
            <threshold>-2.2151910234242678e-003</threshold>
            <left_val>0.4063586890697479</left_val>
            <right_val>-0.4181511998176575</right_val></_></_>
        <_>
          <_>
            <feature>
              <rects>
                <_>
                  16 8 2 6 -1.</_>
                <_>
                  16 8 1 6 2.</_></rects>
              <tilted>0</tilted></feature>
            <threshold>-6.9502610713243484e-003</threshold>
            <left_val>0.3691863119602203</left_val>
            <right_val>-0.1661995053291321</right_val></_></_>
        <_>
          <_>
            <feature>
              <rects>
                <_>
                  6 0 2 2 -1.</_>
                <_>
                  6 1 2 1 2.</_></rects>
              <tilted>0</tilted></feature>
            <threshold>3.4181640949100256e-003</threshold>
            <left_val>-0.2159322053194046</left_val>
            <right_val>0.5993493199348450</right_val></_></_></trees>
      <stage_threshold>-1.5366970300674438</stage_threshold>
      <parent>1</parent>
      <next>-1</next></_>
    <_>
      <trees>
        <_>
          <_>
            <feature>
              <rects>
                <_>
                  5 6 10 9 -1.</_>
                <_>
                  5 9 10 3 3.</_></rects>
              <tilted>0</tilted></feature>
            <threshold>0.1230155006051064</threshold>
            <left_val>-0.5820894241333008</left_val>
            <right_val>0.5937005281448364</right_val></_></_>
        <_>
          <_>
            <feature>
              <rects>
                <_>
                  5 1 10 3 -1.</_>
                <_>
                  5 2 10 1 3.</_></rects>
              <tilted>0</tilted></feature>
            <threshold>0.0101747997105122</threshold>
            <left_val>-0.4174146056175232</left_val>
            <right_val>0.4916394948959351</right_val></_></_>
        <_>
          <_>
            <feature>
              <rects>
                <_>
                  5 7 10 7 -1.</_>
                <_>
                  10 7 5 7 2.</_></rects>
              <tilted>0</tilted></feature>
            <threshold>0.0189242307096720</threshold>
            <left_val>-0.5115373134613037</left_val>
            <right_val>0.3707562088966370</right_val></_></_>
        <_>
          <_>
            <feature>
              <rects>
                <_>
                  2 18 17 2 -1.</_>
                <_>
                  2 19 17 1 2.</_></rects>
              <tilted>0</tilted></feature>
            <threshold>-0.0102907698601484</threshold>
            <left_val>0.4288390874862671</left_val>
            <right_val>-0.4335483908653259</right_val></_></_>
        <_>
          <_>
            <feature>
              <rects>
                <_>
                  0 1 2 15 -1.</_>
                <_>
                  1 1 1 15 2.</_></rects>
              <tilted>0</tilted></feature>
            <threshold>2.8721538837999105e-003</threshold>
            <left_val>-0.5818052887916565</left_val>
            <right_val>0.2814710140228272</right_val></_></_>
        <_>
          <_>
            <feature>
              <rects>
                <_>
                  5 2 10 15 -1.</_>
                <_>
                  5 7 10 5 3.</_></rects>
              <tilted>0</tilted></feature>
            <threshold>0.1050558984279633</threshold>
            <left_val>-0.6245762705802918</left_val>
            <right_val>0.2288721948862076</right_val></_></_>
        <_>
          <_>
            <feature>
              <rects>
                <_>
                  2 0 15 2 -1.</_>
                <_>
                  2 1 15 1 2.</_></rects>
              <tilted>0</tilted></feature>
            <threshold>9.2449001967906952e-003</threshold>
            <left_val>-0.3650059998035431</left_val>
            <right_val>0.4232982099056244</right_val></_></_>
        <_>
          <_>
            <feature>
              <rects>
                <_>
                  5 15 10 4 -1.</_>
                <_>
                  5 17 10 2 2.</_></rects>
              <tilted>0</tilted></feature>
            <threshold>0.0125979399308562</threshold>
            <left_val>-0.3873107135295868</left_val>
            <right_val>0.3575811982154846</right_val></_></_>
        <_>
          <_>
            <feature>
              <rects>
                <_>
                  1 7 1 6 -1.</_>
                <_>
                  1 9 1 2 3.</_></rects>
              <tilted>0</tilted></feature>
            <threshold>-7.3927058838307858e-004</threshold>
            <left_val>0.2994619011878967</left_val>
            <right_val>-0.5204495787620544</right_val></_></_>
        <_>
          <_>
            <feature>
              <rects>
                <_>
                  9 5 4 6 -1.</_>
                <_>
                  9 7 4 2 3.</_></rects>
              <tilted>0</tilted></feature>
            <threshold>-0.0116051500663161</threshold>
            <left_val>0.3051990866661072</left_val>
            <right_val>-0.2449423968791962</right_val></_></_>
        <_>
          <_>
            <feature>
              <rects>
                <_>
                  5 4 10 12 -1.</_>
                <_>
                  5 8 10 4 3.</_></rects>
              <tilted>0</tilted></feature>
            <threshold>1.3337739801499993e-004</threshold>
            <left_val>-0.8753036856651306</left_val>
            <right_val>0.1239764988422394</right_val></_></_>
        <_>
          <_>
            <feature>
              <rects>
                <_>
                  16 6 2 9 -1.</_>
                <_>
                  16 6 1 9 2.</_></rects>
              <tilted>0</tilted></feature>
            <threshold>-7.6767918653786182e-003</threshold>
            <left_val>0.3179720938205719</left_val>
            <right_val>-0.2196148037910461</right_val></_></_>
        <_>
          <_>
            <feature>
              <rects>
                <_>
                  5 7 9 7 -1.</_>
                <_>
                  8 7 3 7 3.</_></rects>
              <tilted>0</tilted></feature>
            <threshold>-3.7336559034883976e-003</threshold>
            <left_val>0.3071298897266388</left_val>
            <right_val>-0.3495000898838043</right_val></_></_>
        <_>
          <_>
            <feature>
              <rects>
                <_>
                  16 6 2 9 -1.</_>
                <_>
                  16 6 1 9 2.</_></rects>
              <tilted>0</tilted></feature>
            <threshold>2.4506819900125265e-003</threshold>
            <left_val>-0.1219334974884987</left_val>
            <right_val>0.1956257969141007</right_val></_></_>
        <_>
          <_>
            <feature>
              <rects>
                <_>
                  2 6 2 9 -1.</_>
                <_>
                  3 6 1 9 2.</_></rects>
              <tilted>0</tilted></feature>
            <threshold>-6.0964347794651985e-003</threshold>
            <left_val>0.4489322900772095</left_val>
            <right_val>-0.2941158115863800</right_val></_></_>
        <_>
          <_>
            <feature>
              <rects>
                <_>
                  8 9 6 3 -1.</_>
                <_>
                  10 9 2 3 3.</_></rects>
              <tilted>0</tilted></feature>
            <threshold>6.7362119443714619e-003</threshold>
            <left_val>0.2162529975175858</left_val>
            <right_val>-0.6718711256980896</right_val></_></_></trees>
      <stage_threshold>-1.8249280452728271</stage_threshold>
      <parent>2</parent>
      <next>-1</next></_>
    <_>
      <trees>
        <_>
          <_>
            <feature>
              <rects>
                <_>
                  5 4 10 12 -1.</_>
                <_>
                  5 8 10 4 3.</_></rects>
              <tilted>0</tilted></feature>
            <threshold>0.2033282071352005</threshold>
            <left_val>-0.4643420875072479</left_val>
            <right_val>0.4538454115390778</right_val></_></_>
        <_>
          <_>
            <feature>
              <rects>
                <_>
                  18 4 2 14 -1.</_>
                <_>
                  18 4 1 14 2.</_></rects>
              <tilted>0</tilted></feature>
            <threshold>6.5605198033154011e-003</threshold>
            <left_val>-0.4296030998229981</left_val>
            <right_val>0.4364682137966156</right_val></_></_>
        <_>
          <_>
            <feature>
              <rects>
                <_>
                  0 4 2 14 -1.</_>
                <_>
                  1 4 1 14 2.</_></rects>
              <tilted>0</tilted></feature>
            <threshold>0.0106298504397273</threshold>
            <left_val>-0.4748347997665405</left_val>
            <right_val>0.3886415064334869</right_val></_></_>
        <_>
          <_>
            <feature>
              <rects>
                <_>
                  6 9 12 10 -1.</_>
                <_>
                  12 9 6 5 2.</_>
                <_>
                  6 14 6 5 2.</_></rects>
              <tilted>0</tilted></feature>
            <threshold>-0.0888589024543762</threshold>
            <left_val>-0.4380803108215332</left_val>
            <right_val>0.0583620704710484</right_val></_></_>
        <_>
          <_>
            <feature>
              <rects>
                <_>
                  2 9 12 10 -1.</_>
                <_>
                  2 9 6 5 2.</_>
                <_>
                  8 14 6 5 2.</_></rects>
              <tilted>0</tilted></feature>
            <threshold>-0.0179136805236340</threshold>
            <left_val>0.2638278901576996</left_val>
            <right_val>-0.5764355063438416</right_val></_></_>
        <_>
          <_>
            <feature>
              <rects>
                <_>
                  4 1 12 3 -1.</_>
                <_>
                  4 2 12 1 3.</_></rects>
              <tilted>0</tilted></feature>
            <threshold>7.8407209366559982e-003</threshold>
            <left_val>-0.4355689883232117</left_val>
            <right_val>0.3699116110801697</right_val></_></_>
        <_>
          <_>
            <feature>
              <rects>
                <_>
                  4 17 11 3 -1.</_>
                <_>
                  4 18 11 1 3.</_></rects>
              <tilted>0</tilted></feature>
            <threshold>9.4786342233419418e-003</threshold>
            <left_val>-0.4169887006282806</left_val>
            <right_val>0.3255831897258759</right_val></_></_>
        <_>
          <_>
            <feature>
              <rects>
                <_>
                  9 7 2 4 -1.</_>
                <_>
                  9 9 2 2 2.</_></rects>
              <tilted>0</tilted></feature>
            <threshold>4.2597609572112560e-003</threshold>
            <left_val>-0.5508446097373962</left_val>
            <right_val>0.2827090024948120</right_val></_></_>
        <_>
          <_>
            <feature>
              <rects>
                <_>
                  5 12 9 1 -1.</_>
                <_>
                  8 12 3 1 3.</_></rects>
              <tilted>0</tilted></feature>
            <threshold>-4.6159238554537296e-003</threshold>
            <left_val>0.3133456110954285</left_val>
            <right_val>-0.4214119017124176</right_val></_></_>
        <_>
          <_>
            <feature>
              <rects>
                <_>
                  5 8 14 5 -1.</_>
                <_>
                  5 8 7 5 2.</_></rects>
              <tilted>0</tilted></feature>
            <threshold>-7.0393341593444347e-004</threshold>
            <left_val>0.1277299970388413</left_val>
            <right_val>-0.1172764003276825</right_val></_></_>
        <_>
          <_>
            <feature>
              <rects>
                <_>
                  1 8 14 5 -1.</_>
                <_>
                  8 8 7 5 2.</_></rects>
              <tilted>0</tilted></feature>
            <threshold>5.1185260526835918e-003</threshold>
            <left_val>-0.5560216903686523</left_val>
            <right_val>0.1801608055830002</right_val></_></_>
        <_>
          <_>
            <feature>
              <rects>
                <_>
                  4 16 12 2 -1.</_>
                <_>
                  4 17 12 1 2.</_></rects>
              <tilted>0</tilted></feature>
            <threshold>1.6905970405787230e-003</threshold>
            <left_val>-0.4524270892143250</left_val>
            <right_val>0.2066421061754227</right_val></_></_>
        <_>
          <_>
            <feature>
              <rects>
                <_>
                  6 1 6 2 -1.</_>
                <_>
                  9 1 3 2 2.</_></rects>
              <tilted>0</tilted></feature>
            <threshold>-5.6973509490489960e-003</threshold>
            <left_val>0.4453206956386566</left_val>
            <right_val>-0.2770175039768219</right_val></_></_>
        <_>
          <_>
            <feature>
              <rects>
                <_>
                  13 3 6 12 -1.</_>
                <_>
                  16 3 3 6 2.</_>
                <_>
                  13 9 3 6 2.</_></rects>
              <tilted>0</tilted></feature>
            <threshold>0.0452889800071716</threshold>
            <left_val>-0.1911648958921433</left_val>
            <right_val>0.4298023879528046</right_val></_></_>
        <_>
          <_>
            <feature>
              <rects>
                <_>
                  5 0 10 20 -1.</_>
                <_>
                  5 0 5 10 2.</_>
                <_>
                  10 10 5 10 2.</_></rects>
              <tilted>0</tilted></feature>
            <threshold>-0.1037760972976685</threshold>
            <left_val>0.7167177796363831</left_val>
            <right_val>-0.3076553046703339</right_val></_></_>
        <_>
          <_>
            <feature>
              <rects>
                <_>
                  13 5 6 6 -1.</_>
                <_>
                  16 5 3 3 2.</_>
                <_>
                  13 8 3 3 2.</_></rects>
              <tilted>0</tilted></feature>
            <threshold>0.0112810498103499</threshold>
            <left_val>-0.2998653948307037</left_val>
            <right_val>0.2899222075939179</right_val></_></_>
        <_>
          <_>
            <feature>
              <rects>
                <_>
                  1 5 6 6 -1.</_>
                <_>
                  1 5 3 3 2.</_>
                <_>
                  4 8 3 3 2.</_></rects>
              <tilted>0</tilted></feature>
            <threshold>0.0112540600821376</threshold>
            <left_val>-0.4139339029788971</left_val>
            <right_val>0.3342157006263733</right_val></_></_></trees>
      <stage_threshold>-1.6463220119476318</stage_threshold>
      <parent>3</parent>
      <next>-1</next></_>
    <_>
      <trees>
        <_>
          <_>
            <feature>
              <rects>
                <_>
                  7 7 4 6 -1.</_>
                <_>
                  7 9 4 2 3.</_></rects>
              <tilted>0</tilted></feature>
            <threshold>0.0472702793776989</threshold>
            <left_val>-0.3123311102390289</left_val>
            <right_val>0.5781847238540649</right_val></_></_>
        <_>
          <_>
            <feature>
              <rects>
                <_>
                  3 0 14 6 -1.</_>
                <_>
                  3 2 14 2 3.</_></rects>
              <tilted>0</tilted></feature>
            <threshold>0.0210886206477880</threshold>
            <left_val>-0.5657972097396851</left_val>
            <right_val>0.3340637981891632</right_val></_></_>
        <_>
          <_>
            <feature>
              <rects>
                <_>
                  4 10 12 9 -1.</_>
                <_>
                  4 13 12 3 3.</_></rects>
              <tilted>0</tilted></feature>
            <threshold>-0.0969474166631699</threshold>
            <left_val>0.3881435096263886</left_val>
            <right_val>-0.4640288054943085</right_val></_></_>
        <_>
          <_>
            <feature>
              <rects>
                <_>
                  2 18 18 2 -1.</_>
                <_>
                  2 19 18 1 2.</_></rects>
              <tilted>0</tilted></feature>
            <threshold>-4.5563448220491409e-003</threshold>
            <left_val>0.3361425995826721</left_val>
            <right_val>-0.5033457875251770</right_val></_></_>
        <_>
          <_>
            <feature>
              <rects>
                <_>
                  0 4 2 13 -1.</_>
                <_>
                  1 4 1 13 2.</_></rects>
              <tilted>0</tilted></feature>
            <threshold>4.6057309955358505e-003</threshold>
            <left_val>-0.5548092126846314</left_val>
            <right_val>0.1870380938053131</right_val></_></_>
        <_>
          <_>
            <feature>
              <rects>
                <_>
                  5 3 10 15 -1.</_>
                <_>
                  5 8 10 5 3.</_></rects>
              <tilted>0</tilted></feature>
            <threshold>0.0968180596828461</threshold>
            <left_val>-0.6992989778518677</left_val>
            <right_val>0.1145009025931358</right_val></_></_>
        <_>
          <_>
            <feature>
              <rects>
                <_>
                  1 6 1 9 -1.</_>
                <_>
                  1 9 1 3 3.</_></rects>
              <tilted>0</tilted></feature>
            <threshold>-1.4596909750252962e-003</threshold>
            <left_val>0.2205505967140198</left_val>
            <right_val>-0.4675984084606171</right_val></_></_>
        <_>
          <_>
            <feature>
              <rects>
                <_>
                  6 7 9 6 -1.</_>
                <_>
                  9 7 3 6 3.</_></rects>
              <tilted>0</tilted></feature>
            <threshold>-5.8002001605927944e-003</threshold>
            <left_val>0.2975159883499146</left_val>
            <right_val>-0.4206170141696930</right_val></_></_>
        <_>
          <_>
            <feature>
              <rects>
                <_>
                  5 7 10 7 -1.</_>
                <_>
                  10 7 5 7 2.</_></rects>
              <tilted>0</tilted></feature>
            <threshold>0.0122975399717689</threshold>
            <left_val>-0.4446972012519836</left_val>
            <right_val>0.2236198037862778</right_val></_></_>
        <_>
          <_>
            <feature>
              <rects>
                <_>
                  16 8 2 6 -1.</_>
                <_>
                  16 8 1 6 2.</_></rects>
              <tilted>0</tilted></feature>
            <threshold>-0.0151930395513773</threshold>
            <left_val>0.6857724785804749</left_val>
            <right_val>-0.1330264061689377</right_val></_></_>
        <_>
          <_>
            <feature>
              <rects>
                <_>
                  1 1 6 18 -1.</_>
                <_>
                  1 1 3 9 2.</_>
                <_>
                  4 10 3 9 2.</_></rects>
              <tilted>0</tilted></feature>
            <threshold>-0.0760354176163673</threshold>
            <left_val>0.6387842297554016</left_val>
            <right_val>-0.1244565024971962</right_val></_></_>
        <_>
          <_>
            <feature>
              <rects>
                <_>
                  9 8 8 6 -1.</_>
                <_>
                  9 10 8 2 3.</_></rects>
              <tilted>0</tilted></feature>
            <threshold>0.0273320693522692</threshold>
            <left_val>-0.2789841890335083</left_val>
            <right_val>0.2072843015193939</right_val></_></_>
        <_>
          <_>
            <feature>
              <rects>
                <_>
                  6 7 8 6 -1.</_>
                <_>
                  6 7 4 3 2.</_>
                <_>
                  10 10 4 3 2.</_></rects>
              <tilted>0</tilted></feature>
            <threshold>-0.0350771583616734</threshold>
            <left_val>0.6391518712043762</left_val>
            <right_val>-0.1614080965518951</right_val></_></_>
        <_>
          <_>
            <feature>
              <rects>
                <_>
                  13 5 6 4 -1.</_>
                <_>
                  16 5 3 2 2.</_>
                <_>
                  13 7 3 2 2.</_></rects>
              <tilted>0</tilted></feature>
            <threshold>0.0161201898008585</threshold>
            <left_val>-0.3238283097743988</left_val>
            <right_val>0.5565193295478821</right_val></_></_>
        <_>
          <_>
            <feature>
              <rects>
                <_>
                  5 15 10 4 -1.</_>
                <_>
                  5 15 5 2 2.</_>
                <_>
                  10 17 5 2 2.</_></rects>
              <tilted>0</tilted></feature>
            <threshold>0.0275808591395617</threshold>
            <left_val>-0.1515183001756668</left_val>
            <right_val>0.6603645086288452</right_val></_></_>
        <_>
          <_>
            <feature>
              <rects>
                <_>
                  9 16 4 4 -1.</_>
                <_>
                  11 16 2 2 2.</_>
                <_>
                  9 18 2 2 2.</_></rects>
              <tilted>0</tilted></feature>
            <threshold>-3.9366321288980544e-004</threshold>
            <left_val>0.1728010028600693</left_val>
            <right_val>-0.1742074042558670</right_val></_></_>
        <_>
          <_>
            <feature>
              <rects>
                <_>
                  2 7 2 12 -1.</_>
                <_>
                  2 7 1 6 2.</_>
                <_>
                  3 13 1 6 2.</_></rects>
              <tilted>0</tilted></feature>
            <threshold>6.3149970956146717e-003</threshold>
            <left_val>-0.2224528044462204</left_val>
            <right_val>0.4212807118892670</right_val></_></_>
        <_>
          <_>
            <feature>
              <rects>
                <_>
                  2 0 17 2 -1.</_>
                <_>
                  2 1 17 1 2.</_></rects>
              <tilted>0</tilted></feature>
            <threshold>8.0156940966844559e-003</threshold>
            <left_val>-0.3335798978805542</left_val>
            <right_val>0.3220736980438232</right_val></_></_></trees>
      <stage_threshold>-1.7030769586563110</stage_threshold>
      <parent>4</parent>
      <next>-1</next></_>
    <_>
      <trees>
        <_>
          <_>
            <feature>
              <rects>
                <_>
                  8 9 4 3 -1.</_>
                <_>
                  8 10 4 1 3.</_></rects>
              <tilted>0</tilted></feature>
            <threshold>0.0127734504640102</threshold>
            <left_val>-0.2988513112068176</left_val>
            <right_val>0.5360844135284424</right_val></_></_>
        <_>
          <_>
            <feature>
              <rects>
                <_>
                  18 0 2 17 -1.</_>
                <_>
                  18 0 1 17 2.</_></rects>
              <tilted>0</tilted></feature>
            <threshold>6.9236392155289650e-003</threshold>
            <left_val>-0.4068562984466553</left_val>
            <right_val>0.3587844967842102</right_val></_></_>
        <_>
          <_>
            <feature>
              <rects>
                <_>
                  0 0 2 17 -1.</_>
                <_>
                  1 0 1 17 2.</_></rects>
              <tilted>0</tilted></feature>
            <threshold>0.0100298095494509</threshold>
            <left_val>-0.5328056216239929</left_val>
            <right_val>0.3017360866069794</right_val></_></_>
        <_>
          <_>
            <feature>
              <rects>
                <_>
                  5 4 10 12 -1.</_>
                <_>
                  5 8 10 4 3.</_></rects>
              <tilted>0</tilted></feature>
            <threshold>0.1253494024276733</threshold>
            <left_val>-0.7505992054939270</left_val>
            <right_val>0.3123266100883484</right_val></_></_>
        <_>
          <_>
            <feature>
              <rects>
                <_>
                  3 18 14 2 -1.</_>
                <_>
                  3 19 14 1 2.</_></rects>
              <tilted>0</tilted></feature>
            <threshold>-5.3533772006630898e-003</threshold>
            <left_val>0.1999967992305756</left_val>
            <right_val>-0.7141004204750061</right_val></_></_>
        <_>
          <_>
            <feature>
              <rects>
                <_>
                  3 0 15 6 -1.</_>
                <_>
                  3 2 15 2 3.</_></rects>
              <tilted>0</tilted></feature>
            <threshold>5.5542332120239735e-004</threshold>
            <left_val>-0.6609467864036560</left_val>
            <right_val>0.1756190955638886</right_val></_></_>
        <_>
          <_>
            <feature>
              <rects>
                <_>
                  4 15 12 4 -1.</_>
                <_>
                  4 17 12 2 2.</_></rects>
              <tilted>0</tilted></feature>
            <threshold>5.0432361604180187e-005</threshold>
            <left_val>-0.6241704821586609</left_val>
            <right_val>0.1978656053543091</right_val></_></_>
        <_>
          <_>
            <feature>
              <rects>
                <_>
                  6 2 12 10 -1.</_>
                <_>
                  12 2 6 5 2.</_>
                <_>
                  6 7 6 5 2.</_></rects>
              <tilted>0</tilted></feature>
            <threshold>1.0891449637711048e-003</threshold>
            <left_val>-0.2136324942111969</left_val>
            <right_val>0.0719414427876472</right_val></_></_>
        <_>
          <_>
            <feature>
              <rects>
                <_>
                  3 1 12 10 -1.</_>
                <_>
                  3 1 6 5 2.</_>
                <_>
                  9 6 6 5 2.</_></rects>
              <tilted>0</tilted></feature>
            <threshold>7.8613776713609695e-003</threshold>
            <left_val>-0.5740017294883728</left_val>
            <right_val>0.3128814101219177</right_val></_></_>
        <_>
          <_>
            <feature>
              <rects>
                <_>
                  6 7 9 7 -1.</_>
                <_>
                  9 7 3 7 3.</_></rects>
              <tilted>0</tilted></feature>
            <threshold>-4.2769990977831185e-004</threshold>
            <left_val>0.2560394108295441</left_val>
            <right_val>-0.6363676190376282</right_val></_></_>
        <_>
          <_>
            <feature>
              <rects>
                <_>
                  2 3 2 13 -1.</_>
                <_>
                  3 3 1 13 2.</_></rects>
              <tilted>0</tilted></feature>
            <threshold>-2.5458000600337982e-003</threshold>
            <left_val>0.3311789035797119</left_val>
            <right_val>-0.4229818880558014</right_val></_></_>
        <_>
          <_>
            <feature>
              <rects>
                <_>
                  15 10 4 4 -1.</_>
                <_>
                  17 10 2 2 2.</_>
                <_>
                  15 12 2 2 2.</_></rects>
              <tilted>0</tilted></feature>
            <threshold>-6.7060650326311588e-003</threshold>
            <left_val>0.3696871995925903</left_val>
            <right_val>-0.2594527900218964</right_val></_></_>
        <_>
          <_>
            <feature>
              <rects>
                <_>
                  1 10 4 4 -1.</_>
                <_>
                  1 10 2 2 2.</_>
                <_>
                  3 12 2 2 2.</_></rects>
              <tilted>0</tilted></feature>
            <threshold>-1.8112319521605968e-003</threshold>
            <left_val>0.3263520002365112</left_val>
            <right_val>-0.4338479042053223</right_val></_></_>
        <_>
          <_>
            <feature>
              <rects>
                <_>
                  6 2 8 3 -1.</_>
                <_>
                  6 3 8 1 3.</_></rects>
              <tilted>0</tilted></feature>
            <threshold>-3.1071479897946119e-003</threshold>
            <left_val>0.3804920017719269</left_val>
            <right_val>-0.2851360142230988</right_val></_></_>
        <_>
          <_>
            <feature>
              <rects>
                <_>
                  1 8 2 2 -1.</_>
                <_>
                  1 8 1 1 2.</_>
                <_>
                  2 9 1 1 2.</_></rects>
              <tilted>0</tilted></feature>
            <threshold>3.6859750980511308e-004</threshold>
            <left_val>-0.3133907914161682</left_val>
            <right_val>0.2935355007648468</right_val></_></_>
        <_>
          <_>
            <feature>
              <rects>
                <_>
                  7 18 6 1 -1.</_>
                <_>
                  9 18 2 1 3.</_></rects>
              <tilted>0</tilted></feature>
            <threshold>-1.0480659548193216e-003</threshold>
            <left_val>0.2797195911407471</left_val>
            <right_val>-0.3400348126888275</right_val></_></_>
        <_>
          <_>
            <feature>
              <rects>
                <_>
                  1 6 6 6 -1.</_>
                <_>
                  1 6 3 3 2.</_>
                <_>
                  4 9 3 3 2.</_></rects>
              <tilted>0</tilted></feature>
            <threshold>0.0262140408158302</threshold>
            <left_val>-0.2167605012655258</left_val>
            <right_val>0.4209617972373962</right_val></_></_>
        <_>
          <_>
            <feature>
              <rects>
                <_>
                  13 7 6 6 -1.</_>
                <_>
                  16 7 3 3 2.</_>
                <_>
                  13 10 3 3 2.</_></rects>
              <tilted>0</tilted></feature>
            <threshold>0.0328040011227131</threshold>
            <left_val>-0.1866810023784638</left_val>
            <right_val>0.5958291292190552</right_val></_></_>
        <_>
          <_>
            <feature>
              <rects>
                <_>
                  9 6 2 9 -1.</_>
                <_>
                  9 9 2 3 3.</_></rects>
              <tilted>0</tilted></feature>
            <threshold>9.7394082695245743e-004</threshold>
            <left_val>-0.7610505819320679</left_val>
            <right_val>0.1386653929948807</right_val></_></_>
        <_>
          <_>
            <feature>
              <rects>
                <_>
                  6 1 8 2 -1.</_>
                <_>
                  6 2 8 1 2.</_></rects>
              <tilted>0</tilted></feature>
            <threshold>4.3831309303641319e-003</threshold>
            <left_val>-0.4027940928936005</left_val>
            <right_val>0.2896318137645721</right_val></_></_>
        <_>
          <_>
            <feature>
              <rects>
                <_>
                  6 4 8 12 -1.</_>
                <_>
                  6 8 8 4 3.</_></rects>
              <tilted>0</tilted></feature>
            <threshold>7.4637937359511852e-004</threshold>
            <left_val>-0.9110941886901856</left_val>
            <right_val>0.0966087132692337</right_val></_></_>
        <_>
          <_>
            <feature>
              <rects>
                <_>
                  14 13 6 5 -1.</_>
                <_>
                  16 13 2 5 3.</_></rects>
              <tilted>0</tilted></feature>
            <threshold>-1.8035409739241004e-003</threshold>
            <left_val>0.0649009868502617</left_val>
            <right_val>-0.2871791124343872</right_val></_></_>
        <_>
          <_>
            <feature>
              <rects>
                <_>
                  5 8 10 12 -1.</_>
                <_>
                  5 14 10 6 2.</_></rects>
              <tilted>0</tilted></feature>
            <threshold>-1.8667120020836592e-003</threshold>
            <left_val>0.1975242048501968</left_val>
            <right_val>-0.6401292085647583</right_val></_></_></trees>
      <stage_threshold>-1.7591060400009155</stage_threshold>
      <parent>5</parent>
      <next>-1</next></_>
    <_>
      <trees>
        <_>
          <_>
            <feature>
              <rects>
                <_>
                  5 4 10 12 -1.</_>
                <_>
                  5 8 10 4 3.</_></rects>
              <tilted>0</tilted></feature>
            <threshold>0.2269065976142883</threshold>
            <left_val>-0.3576262891292572</left_val>
            <right_val>0.4414278864860535</right_val></_></_>
        <_>
          <_>
            <feature>
              <rects>
                <_>
                  18 4 2 12 -1.</_>
                <_>
                  18 4 1 12 2.</_></rects>
              <tilted>0</tilted></feature>
            <threshold>0.0102484999224544</threshold>
            <left_val>-0.3494518101215363</left_val>
            <right_val>0.4043729007244110</right_val></_></_>
        <_>
          <_>
            <feature>
              <rects>
                <_>
                  0 3 2 13 -1.</_>
                <_>
                  1 3 1 13 2.</_></rects>
              <tilted>0</tilted></feature>
            <threshold>6.2504298985004425e-003</threshold>
            <left_val>-0.6007866859436035</left_val>
            <right_val>0.2685359120368958</right_val></_></_>
        <_>
          <_>
            <feature>
              <rects>
                <_>
                  5 8 12 5 -1.</_>
                <_>
                  5 8 6 5 2.</_></rects>
              <tilted>0</tilted></feature>
            <threshold>-3.2382349018007517e-003</threshold>
            <left_val>0.2046554982662201</left_val>
            <right_val>-0.5058407783508301</right_val></_></_>
        <_>
          <_>
            <feature>
              <rects>
                <_>
                  1 9 18 3 -1.</_>
                <_>
                  7 9 6 3 3.</_></rects>
              <tilted>0</tilted></feature>
            <threshold>0.0129979299381375</threshold>
            <left_val>-0.6315178871154785</left_val>
            <right_val>0.2168827056884766</right_val></_></_>
        <_>
          <_>
            <feature>
              <rects>
                <_>
                  4 2 12 4 -1.</_>
                <_>
                  4 4 12 2 2.</_></rects>
              <tilted>0</tilted></feature>
            <threshold>-1.3706979807466269e-003</threshold>
            <left_val>0.2175820022821426</left_val>
            <right_val>-0.6630924940109253</right_val></_></_>
        <_>
          <_>
            <feature>
              <rects>
                <_>
                  5 7 9 6 -1.</_>
                <_>
                  8 7 3 6 3.</_></rects>
              <tilted>0</tilted></feature>
            <threshold>-3.8865880924277008e-004</threshold>
            <left_val>0.2624093890190125</left_val>
            <right_val>-0.5160406827926636</right_val></_></_>
        <_>
          <_>
            <feature>
              <rects>
                <_>
                  12 14 8 6 -1.</_>
                <_>
                  16 14 4 3 2.</_>
                <_>
                  12 17 4 3 2.</_></rects>
              <tilted>0</tilted></feature>
            <threshold>8.6425542831420898e-003</threshold>
            <left_val>-0.3766677975654602</left_val>
            <right_val>0.2879338860511780</right_val></_></_>
        <_>
          <_>
            <feature>
              <rects>
                <_>
                  1 0 17 2 -1.</_>
                <_>
                  1 1 17 1 2.</_></rects>
              <tilted>0</tilted></feature>
            <threshold>0.0108820097520947</threshold>
            <left_val>-0.3313583135604858</left_val>
            <right_val>0.3632236123085022</right_val></_></_>
        <_>
          <_>
            <feature>
              <rects>
                <_>
                  2 18 16 2 -1.</_>
                <_>
                  2 19 16 1 2.</_></rects>
              <tilted>0</tilted></feature>
            <threshold>-4.6164398081600666e-003</threshold>
            <left_val>0.2176488041877747</left_val>
            <right_val>-0.5739551186561585</right_val></_></_>
        <_>
          <_>
            <feature>
              <rects>
                <_>
                  1 11 6 4 -1.</_>
                <_>
                  1 11 3 2 2.</_>
                <_>
                  4 13 3 2 2.</_></rects>
              <tilted>0</tilted></feature>
            <threshold>-8.2233762368559837e-003</threshold>
            <left_val>0.3458462953567505</left_val>
            <right_val>-0.3563978970050812</right_val></_></_>
        <_>
          <_>
            <feature>
              <rects>
                <_>
                  9 0 2 3 -1.</_>
                <_>
                  9 1 2 1 3.</_></rects>
              <tilted>0</tilted></feature>
            <threshold>-1.0230940533801913e-003</threshold>
            <left_val>0.3056358098983765</left_val>
            <right_val>-0.2722635865211487</right_val></_></_>
        <_>
          <_>
            <feature>
              <rects>
                <_>
                  8 8 3 6 -1.</_>
                <_>
                  8 10 3 2 3.</_></rects>
              <tilted>0</tilted></feature>
            <threshold>0.0377003289759159</threshold>
            <left_val>-0.1715679019689560</left_val>
            <right_val>0.4682782888412476</right_val></_></_>
        <_>
          <_>
            <feature>
              <rects>
                <_>
                  9 8 3 3 -1.</_>
                <_>
                  9 9 3 1 3.</_></rects>
              <tilted>0</tilted></feature>
            <threshold>0.0108291003853083</threshold>
            <left_val>-0.2087680995464325</left_val>
            <right_val>0.4909318983554840</right_val></_></_>
        <_>
          <_>
            <feature>
              <rects>
                <_>
                  6 13 8 2 -1.</_>
                <_>
                  6 13 4 1 2.</_>
                <_>
                  10 14 4 1 2.</_></rects>
              <tilted>0</tilted></feature>
            <threshold>-4.1183540597558022e-003</threshold>
            <left_val>0.3889130055904388</left_val>
            <right_val>-0.2797581851482391</right_val></_></_>
        <_>
          <_>
            <feature>
              <rects>
                <_>
                  17 8 2 2 -1.</_>
                <_>
                  18 8 1 1 2.</_>
                <_>
                  17 9 1 1 2.</_></rects>
              <tilted>0</tilted></feature>
            <threshold>6.0403527459129691e-004</threshold>
            <left_val>-0.2214656025171280</left_val>
            <right_val>0.3272016048431397</right_val></_></_>
        <_>
          <_>
            <feature>
              <rects>
                <_>
                  2 2 13 15 -1.</_>
                <_>
                  2 7 13 5 3.</_></rects>
              <tilted>0</tilted></feature>
            <threshold>0.0320386402308941</threshold>
            <left_val>-0.6899796128273010</left_val>
            <right_val>0.1464904993772507</right_val></_></_>
        <_>
          <_>
            <feature>
              <rects>
                <_>
                  18 7 1 6 -1.</_>
                <_>
                  18 9 1 2 3.</_></rects>
              <tilted>0</tilted></feature>
            <threshold>-1.0621489491313696e-003</threshold>
            <left_val>0.2385036945343018</left_val>
            <right_val>-0.3635782003402710</right_val></_></_>
        <_>
          <_>
            <feature>
              <rects>
                <_>
                  1 7 1 6 -1.</_>
                <_>
                  1 9 1 2 3.</_></rects>
              <tilted>0</tilted></feature>
            <threshold>-2.8686851146630943e-004</threshold>
            <left_val>0.2735889852046967</left_val>
            <right_val>-0.3948847949504852</right_val></_></_>
        <_>
          <_>
            <feature>
              <rects>
                <_>
                  9 1 6 6 -1.</_>
                <_>
                  12 1 3 3 2.</_>
                <_>
                  9 4 3 3 2.</_></rects>
              <tilted>0</tilted></feature>
            <threshold>3.5366299562156200e-003</threshold>
            <left_val>-0.2700583040714264</left_val>
            <right_val>0.3449543118476868</right_val></_></_>
        <_>
          <_>
            <feature>
              <rects>
                <_>
                  6 8 8 2 -1.</_>
                <_>
                  6 8 4 1 2.</_>
                <_>
                  10 9 4 1 2.</_></rects>
              <tilted>0</tilted></feature>
            <threshold>-9.6696981927379966e-004</threshold>
            <left_val>0.3139582872390747</left_val>
            <right_val>-0.3475511074066162</right_val></_></_>
        <_>
          <_>
            <feature>
              <rects>
                <_>
                  16 11 2 7 -1.</_>
                <_>
                  16 11 1 7 2.</_></rects>
              <tilted>0</tilted></feature>
            <threshold>-1.0064590023830533e-003</threshold>
            <left_val>0.1963436007499695</left_val>
            <right_val>-0.1817968040704727</right_val></_></_>
        <_>
          <_>
            <feature>
              <rects>
                <_>
                  2 11 2 7 -1.</_>
                <_>
                  3 11 1 7 2.</_></rects>
              <tilted>0</tilted></feature>
            <threshold>-2.0654220134019852e-003</threshold>
            <left_val>0.3286243081092835</left_val>
            <right_val>-0.3601729869842529</right_val></_></_>
        <_>
          <_>
            <feature>
              <rects>
                <_>
                  13 5 6 4 -1.</_>
                <_>
                  16 5 3 2 2.</_>
                <_>
                  13 7 3 2 2.</_></rects>
              <tilted>0</tilted></feature>
            <threshold>0.0163867995142937</threshold>
            <left_val>-0.2687382996082306</left_val>
            <right_val>0.4512600898742676</right_val></_></_>
        <_>
          <_>
            <feature>
              <rects>
                <_>
                  2 18 12 2 -1.</_>
                <_>
                  2 18 6 1 2.</_>
                <_>
                  8 19 6 1 2.</_></rects>
              <tilted>0</tilted></feature>
            <threshold>-5.4780622012913227e-003</threshold>
            <left_val>0.4145810902118683</left_val>
            <right_val>-0.3034723103046417</right_val></_></_>
        <_>
          <_>
            <feature>
              <rects>
                <_>
                  16 6 2 14 -1.</_>
                <_>
                  17 6 1 7 2.</_>
                <_>
                  16 13 1 7 2.</_></rects>
              <tilted>0</tilted></feature>
            <threshold>7.6440609991550446e-003</threshold>
            <left_val>-0.1843879967927933</left_val>
            <right_val>0.4777216911315918</right_val></_></_>
        <_>
          <_>
            <feature>
              <rects>
                <_>
                  3 2 2 5 -1.</_>
                <_>
                  4 2 1 5 2.</_></rects>
              <tilted>0</tilted></feature>
            <threshold>-5.4656912107020617e-004</threshold>
            <left_val>0.2975615859031677</left_val>
            <right_val>-0.3729527890682221</right_val></_></_></trees>
      <stage_threshold>-1.7806940078735352</stage_threshold>
      <parent>6</parent>
      <next>-1</next></_>
    <_>
      <trees>
        <_>
          <_>
            <feature>
              <rects>
                <_>
                  7 9 6 3 -1.</_>
                <_>
                  7 10 6 1 3.</_></rects>
              <tilted>0</tilted></feature>
            <threshold>9.8649617284536362e-003</threshold>
            <left_val>-0.4035809934139252</left_val>
            <right_val>0.3876208961009979</right_val></_></_>
        <_>
          <_>
            <feature>
              <rects>
                <_>
                  13 5 6 4 -1.</_>
                <_>
                  16 5 3 2 2.</_>
                <_>
                  13 7 3 2 2.</_></rects>
              <tilted>0</tilted></feature>
            <threshold>0.0106697799637914</threshold>
            <left_val>-0.5495346784591675</left_val>
            <right_val>0.3441149890422821</right_val></_></_>
        <_>
          <_>
            <feature>
              <rects>
                <_>
                  4 15 12 4 -1.</_>
                <_>
                  4 17 12 2 2.</_></rects>
              <tilted>0</tilted></feature>
            <threshold>1.7574289813637733e-004</threshold>
            <left_val>-0.7449172735214233</left_val>
            <right_val>0.1758169978857040</right_val></_></_>
        <_>
          <_>
            <feature>
              <rects>
                <_>
                  13 5 6 4 -1.</_>
                <_>
                  16 5 3 2 2.</_>
                <_>
                  13 7 3 2 2.</_></rects>
              <tilted>0</tilted></feature>
            <threshold>6.2296609394252300e-004</threshold>
            <left_val>-0.5133591294288635</left_val>
            <right_val>0.0480310507118702</right_val></_></_>
        <_>
          <_>
            <feature>
              <rects>
                <_>
                  1 0 16 6 -1.</_>
                <_>
                  1 2 16 2 3.</_></rects>
              <tilted>0</tilted></feature>
            <threshold>2.2474619618151337e-004</threshold>
            <left_val>-0.7543991804122925</left_val>
            <right_val>0.2612738907337189</right_val></_></_>
        <_>
          <_>
            <feature>
              <rects>
                <_>
                  18 5 2 13 -1.</_>
                <_>
                  18 5 1 13 2.</_></rects>
              <tilted>0</tilted></feature>
            <threshold>3.2319140154868364e-003</threshold>
            <left_val>-0.6586415767669678</left_val>
            <right_val>0.2302366048097611</right_val></_></_>
        <_>
          <_>
            <feature>
              <rects>
                <_>
                  0 3 2 16 -1.</_>
                <_>
                  1 3 1 16 2.</_></rects>
              <tilted>0</tilted></feature>
            <threshold>3.6266859387978911e-004</threshold>
            <left_val>-0.8636999130249023</left_val>
            <right_val>0.1752098947763443</right_val></_></_>
        <_>
          <_>
            <feature>
              <rects>
                <_>
                  5 8 14 5 -1.</_>
                <_>
                  5 8 7 5 2.</_></rects>
              <tilted>0</tilted></feature>
            <threshold>-5.3018721519038081e-004</threshold>
            <left_val>0.1377236992120743</left_val>
            <right_val>-0.5816085934638977</right_val></_></_>
        <_>
          <_>
            <feature>
              <rects>
                <_>
                  1 9 18 3 -1.</_>
                <_>
                  7 9 6 3 3.</_></rects>
              <tilted>0</tilted></feature>
            <threshold>2.5077551254071295e-004</threshold>
            <left_val>-0.7744680047035217</left_val>
            <right_val>0.3853000998497009</right_val></_></_>
        <_>
          <_>
            <feature>
              <rects>
                <_>
                  4 18 14 2 -1.</_>
                <_>
                  4 19 14 1 2.</_></rects>
              <tilted>0</tilted></feature>
            <threshold>-2.6018749922513962e-003</threshold>
            <left_val>0.1714489012956619</left_val>
            <right_val>-0.8203731179237366</right_val></_></_>
        <_>
          <_>
            <feature>
              <rects>
                <_>
                  7 7 6 4 -1.</_>
                <_>
                  7 9 6 2 2.</_></rects>
              <tilted>0</tilted></feature>
            <threshold>5.0176358781754971e-003</threshold>
            <left_val>-0.7928408980369568</left_val>
            <right_val>0.1702401041984558</right_val></_></_>
        <_>
          <_>
            <feature>
              <rects>
                <_>
                  11 1 2 2 -1.</_>
                <_>
                  11 1 1 2 2.</_></rects>
              <tilted>0</tilted></feature>
            <threshold>-7.8040931839495897e-005</threshold>
            <left_val>0.1272532939910889</left_val>
            <right_val>-0.4476456046104431</right_val></_></_>
        <_>
          <_>
            <feature>
              <rects>
                <_>
                  1 7 6 8 -1.</_>
                <_>
                  1 7 3 4 2.</_>
                <_>
                  4 11 3 4 2.</_></rects>
              <tilted>0</tilted></feature>
            <threshold>-0.0298721995204687</threshold>
            <left_val>0.6226220130920410</left_val>
            <right_val>-0.3295680880546570</right_val></_></_>
        <_>
          <_>
            <feature>
              <rects>
                <_>
                  9 4 2 12 -1.</_>
                <_>
                  9 8 2 4 3.</_></rects>
              <tilted>0</tilted></feature>
            <threshold>2.1391669288277626e-003</threshold>
            <left_val>-0.8256981968879700</left_val>
            <right_val>0.2018110007047653</right_val></_></_>
        <_>
          <_>
            <feature>
              <rects>
                <_>
                  5 8 9 6 -1.</_>
                <_>
                  8 8 3 6 3.</_></rects>
              <tilted>0</tilted></feature>
            <threshold>-2.4863679427653551e-003</threshold>
            <left_val>0.2057280987501144</left_val>
            <right_val>-0.5560948252677918</right_val></_></_>
        <_>
          <_>
            <feature>
              <rects>
                <_>
                  3 0 15 2 -1.</_>
                <_>
                  3 1 15 1 2.</_></rects>
              <tilted>0</tilted></feature>
            <threshold>7.0056328549981117e-003</threshold>
            <left_val>-0.3781734108924866</left_val>
            <right_val>0.3037570118904114</right_val></_></_>
        <_>
          <_>
            <feature>
              <rects>
                <_>
                  2 6 4 8 -1.</_>
                <_>
                  2 6 2 4 2.</_>
                <_>
                  4 10 2 4 2.</_></rects>
              <tilted>0</tilted></feature>
            <threshold>0.0177304390817881</threshold>
            <left_val>-0.2431166023015976</left_val>
            <right_val>0.5414115190505981</right_val></_></_>
        <_>
          <_>
            <feature>
              <rects>
                <_>
                  17 10 2 4 -1.</_>
                <_>
                  18 10 1 2 2.</_>
                <_>
                  17 12 1 2 2.</_></rects>
              <tilted>0</tilted></feature>
            <threshold>-7.0412241620942950e-004</threshold>
            <left_val>0.2059724032878876</left_val>
            <right_val>-0.2952891886234283</right_val></_></_>
        <_>
          <_>
            <feature>
              <rects>
                <_>
                  1 10 2 4 -1.</_>
                <_>
                  1 10 1 2 2.</_>
                <_>
                  2 12 1 2 2.</_></rects>
              <tilted>0</tilted></feature>
            <threshold>-8.2421131082810462e-005</threshold>
            <left_val>0.3440091013908386</left_val>
            <right_val>-0.4414623081684113</right_val></_></_>
        <_>
          <_>
            <feature>
              <rects>
                <_>
                  10 1 2 2 -1.</_>
                <_>
                  10 1 1 2 2.</_></rects>
              <tilted>0</tilted></feature>
            <threshold>-1.0242190182907507e-004</threshold>
            <left_val>0.1256736963987351</left_val>
            <right_val>-0.1239643022418022</right_val></_></_>
        <_>
          <_>
            <feature>
              <rects>
                <_>
                  4 8 12 4 -1.</_>
                <_>
                  4 8 6 2 2.</_>
                <_>
                  10 10 6 2 2.</_></rects>
              <tilted>0</tilted></feature>
            <threshold>0.0273797493427992</threshold>
            <left_val>-0.2111981958150864</left_val>
            <right_val>0.6360344290733337</right_val></_></_>
        <_>
          <_>
            <feature>
              <rects>
                <_>
                  4 18 12 1 -1.</_>
                <_>
                  8 18 4 1 3.</_></rects>
              <tilted>0</tilted></feature>
            <threshold>-3.9576147682964802e-003</threshold>
            <left_val>0.3387492001056671</left_val>
            <right_val>-0.4601917862892151</right_val></_></_>
        <_>
          <_>
            <feature>
              <rects>
                <_>
                  4 8 9 12 -1.</_>
                <_>
                  7 8 3 12 3.</_></rects>
              <tilted>0</tilted></feature>
            <threshold>4.6756169758737087e-003</threshold>
            <left_val>-0.2819842100143433</left_val>
            <right_val>0.4302851855754852</right_val></_></_>
        <_>
          <_>
            <feature>
              <rects>
                <_>
                  6 8 9 10 -1.</_>
                <_>
                  6 13 9 5 2.</_></rects>
              <tilted>0</tilted></feature>
            <threshold>-1.0078160557895899e-003</threshold>
            <left_val>0.1303908973932266</left_val>
            <right_val>-0.7467859983444214</right_val></_></_>
        <_>
          <_>
            <feature>
              <rects>
                <_>
                  3 6 5 6 -1.</_>
                <_>
                  3 9 5 3 2.</_></rects>
              <tilted>0</tilted></feature>
            <threshold>0.0289538092911243</threshold>
            <left_val>-0.2886933982372284</left_val>
            <right_val>0.3747276067733765</right_val></_></_>
        <_>
          <_>
            <feature>
              <rects>
                <_>
                  11 1 2 2 -1.</_>
                <_>
                  11 1 1 2 2.</_></rects>
              <tilted>0</tilted></feature>
            <threshold>7.5471456511877477e-005</threshold>
            <left_val>-0.1643020957708359</left_val>
            <right_val>0.1885880976915360</right_val></_></_>
        <_>
          <_>
            <feature>
              <rects>
                <_>
                  7 1 2 2 -1.</_>
                <_>
                  8 1 1 2 2.</_></rects>
              <tilted>0</tilted></feature>
            <threshold>-1.9793340470641851e-005</threshold>
            <left_val>0.3125540912151337</left_val>
            <right_val>-0.4197556972503662</right_val></_></_>
        <_>
          <_>
            <feature>
              <rects>
                <_>
                  16 6 2 14 -1.</_>
                <_>
                  17 6 1 7 2.</_>
                <_>
                  16 13 1 7 2.</_></rects>
              <tilted>0</tilted></feature>
            <threshold>7.3746251873672009e-003</threshold>
            <left_val>-0.1800336986780167</left_val>
            <right_val>0.3931621015071869</right_val></_></_>
        <_>
          <_>
            <feature>
              <rects>
                <_>
                  0 3 2 12 -1.</_>
                <_>
                  0 3 1 6 2.</_>
                <_>
                  1 9 1 6 2.</_></rects>
              <tilted>0</tilted></feature>
            <threshold>-6.5572108142077923e-003</threshold>
            <left_val>0.4868381917476654</left_val>
            <right_val>-0.3405027091503143</right_val></_></_>
        <_>
          <_>
            <feature>
              <rects>
                <_>
                  16 9 3 10 -1.</_>
                <_>
                  17 9 1 10 3.</_></rects>
              <tilted>0</tilted></feature>
            <threshold>-5.2530289394780993e-005</threshold>
            <left_val>0.1901223957538605</left_val>
            <right_val>-0.1565191000699997</right_val></_></_>
        <_>
          <_>
            <feature>
              <rects>
                <_>
                  1 9 3 10 -1.</_>
                <_>
                  2 9 1 10 3.</_></rects>
              <tilted>0</tilted></feature>
            <threshold>1.5473399544134736e-003</threshold>
            <left_val>-0.3612982928752899</left_val>
            <right_val>0.3248794972896576</right_val></_></_>
        <_>
          <_>
            <feature>
              <rects>
                <_>
                  15 8 2 5 -1.</_>
                <_>
                  15 8 1 5 2.</_></rects>
              <tilted>0</tilted></feature>
            <threshold>5.7880617678165436e-003</threshold>
            <left_val>-0.3100059926509857</left_val>
            <right_val>0.3473801016807556</right_val></_></_>
        <_>
          <_>
            <feature>
              <rects>
                <_>
                  3 8 2 5 -1.</_>
                <_>
                  4 8 1 5 2.</_></rects>
              <tilted>0</tilted></feature>
            <threshold>2.7245439923717640e-005</threshold>
            <left_val>-0.5263655185699463</left_val>
            <right_val>0.3218755125999451</right_val></_></_>
        <_>
          <_>
            <feature>
              <rects>
                <_>
                  5 6 10 9 -1.</_>
                <_>
                  5 9 10 3 3.</_></rects>
              <tilted>0</tilted></feature>
            <threshold>2.7552130632102489e-003</threshold>
            <left_val>-0.9204717278480530</left_val>
            <right_val>0.1179931014776230</right_val></_></_>
        <_>
          <_>
            <feature>
              <rects>
                <_>
                  9 6 2 9 -1.</_>
                <_>
                  9 9 2 3 3.</_></rects>
              <tilted>0</tilted></feature>
            <threshold>9.8067952785640955e-004</threshold>
            <left_val>-0.8788613080978394</left_val>
            <right_val>0.0286882799118757</right_val></_></_>
        <_>
          <_>
            <feature>
              <rects>
                <_>
                  17 10 2 2 -1.</_>
                <_>
                  18 10 1 1 2.</_>
                <_>
                  17 11 1 1 2.</_></rects>
              <tilted>0</tilted></feature>
            <threshold>-9.6555551863275468e-005</threshold>
            <left_val>0.0883514136075974</left_val>
            <right_val>-0.4835855960845947</right_val></_></_>
        <_>
          <_>
            <feature>
              <rects>
                <_>
                  3 18 11 2 -1.</_>
                <_>
                  3 19 11 1 2.</_></rects>
              <tilted>0</tilted></feature>
            <threshold>-2.8490149416029453e-003</threshold>
            <left_val>0.3404851853847504</left_val>
            <right_val>-0.5043513178825378</right_val></_></_>
        <_>
          <_>
            <feature>
              <rects>
                <_>
                  14 12 4 8 -1.</_>
                <_>
                  16 12 2 4 2.</_>
                <_>
                  14 16 2 4 2.</_></rects>
              <tilted>0</tilted></feature>
            <threshold>7.0561119355261326e-003</threshold>
            <left_val>-0.2625829875469208</left_val>
            <right_val>0.3224917948246002</right_val></_></_>
        <_>
          <_>
            <feature>
              <rects>
                <_>
                  2 12 4 8 -1.</_>
                <_>
                  2 12 2 4 2.</_>
                <_>
                  4 16 2 4 2.</_></rects>
              <tilted>0</tilted></feature>
            <threshold>0.0104857599362731</threshold>
            <left_val>-0.3472267091274262</left_val>
            <right_val>0.4675964117050171</right_val></_></_>
        <_>
          <_>
            <feature>
              <rects>
                <_>
                  15 15 2 4 -1.</_>
                <_>
                  15 15 1 4 2.</_></rects>
              <tilted>0</tilted></feature>
            <threshold>-1.0747140186140314e-004</threshold>
            <left_val>0.3015244007110596</left_val>
            <right_val>-0.4252048134803772</right_val></_></_>
        <_>
          <_>
            <feature>
              <rects>
                <_>
                  8 1 2 2 -1.</_>
                <_>
                  9 1 1 2 2.</_></rects>
              <tilted>0</tilted></feature>
            <threshold>-8.0707701272331178e-005</threshold>
            <left_val>0.3970353007316589</left_val>
            <right_val>-0.4581314921379089</right_val></_></_>
        <_>
          <_>
            <feature>
              <rects>
                <_>
                  15 15 2 5 -1.</_>
                <_>
                  15 15 1 5 2.</_></rects>
              <tilted>0</tilted></feature>
            <threshold>3.1716140802018344e-004</threshold>
            <left_val>-0.2008510977029800</left_val>
            <right_val>0.2723391950130463</right_val></_></_>
        <_>
          <_>
            <feature>
              <rects>
                <_>
                  3 15 2 4 -1.</_>
                <_>
                  4 15 1 4 2.</_></rects>
              <tilted>0</tilted></feature>
            <threshold>-1.7647469940129668e-004</threshold>
            <left_val>0.3542473912239075</left_val>
            <right_val>-0.4679470062255859</right_val></_></_>
        <_>
          <_>
            <feature>
              <rects>
                <_>
                  18 0 2 8 -1.</_>
                <_>
                  18 4 2 4 2.</_></rects>
              <tilted>0</tilted></feature>
            <threshold>3.5776309669017792e-003</threshold>
            <left_val>-0.2718986868858337</left_val>
            <right_val>0.3518795967102051</right_val></_></_>
        <_>
          <_>
            <feature>
              <rects>
                <_>
                  5 2 10 1 -1.</_>
                <_>
                  10 2 5 1 2.</_></rects>
              <tilted>0</tilted></feature>
            <threshold>0.0117401601746678</threshold>
            <left_val>-0.2722144126892090</left_val>
            <right_val>0.6140841841697693</right_val></_></_>
        <_>
          <_>
            <feature>
              <rects>
                <_>
                  7 4 7 12 -1.</_>
                <_>
                  7 8 7 4 3.</_></rects>
              <tilted>0</tilted></feature>
            <threshold>4.4727388740284368e-005</threshold>
            <left_val>-0.8754559755325317</left_val>
            <right_val>0.1417707949876785</right_val></_></_>
        <_>
          <_>
            <feature>
              <rects>
                <_>
                  0 8 4 2 -1.</_>
                <_>
                  0 8 2 1 2.</_>
                <_>
                  2 9 2 1 2.</_></rects>
              <tilted>0</tilted></feature>
            <threshold>2.2148230345919728e-004</threshold>
            <left_val>-0.6411191821098328</left_val>
            <right_val>0.2123150974512100</right_val></_></_>
        <_>
          <_>
            <feature>
              <rects>
                <_>
                  6 5 9 12 -1.</_>
                <_>
                  6 9 9 4 3.</_></rects>
              <tilted>0</tilted></feature>
            <threshold>1.0886810487136245e-003</threshold>
            <left_val>-0.8822926282882690</left_val>
            <right_val>0.1200231015682221</right_val></_></_>
        <_>
          <_>
            <feature>
              <rects>
                <_>
                  8 6 3 9 -1.</_>
                <_>
                  8 9 3 3 3.</_></rects>
              <tilted>0</tilted></feature>
            <threshold>2.1934100004727952e-005</threshold>
            <left_val>-0.9000378251075745</left_val>
            <right_val>0.0419758707284927</right_val></_></_>
        <_>
          <_>
            <feature>
              <rects>
                <_>
                  5 2 10 3 -1.</_>
                <_>
                  5 3 10 1 3.</_></rects>
              <tilted>0</tilted></feature>
            <threshold>-6.4656429458409548e-004</threshold>
            <left_val>0.3071044087409973</left_val>
            <right_val>-0.6638901233673096</right_val></_></_>
        <_>
          <_>
            <feature>
              <rects>
                <_>
                  4 3 11 2 -1.</_>
                <_>
                  4 4 11 1 2.</_></rects>
              <tilted>0</tilted></feature>
            <threshold>-4.7092628665268421e-003</threshold>
            <left_val>0.4809134900569916</left_val>
            <right_val>-0.4560967087745667</right_val></_></_>
        <_>
          <_>
            <feature>
              <rects>
                <_>
                  11 1 1 9 -1.</_>
                <_>
                  11 4 1 3 3.</_></rects>
              <tilted>0</tilted></feature>
            <threshold>1.2657330371439457e-003</threshold>
            <left_val>-0.1808898001909256</left_val>
            <right_val>0.4903283119201660</right_val></_></_>
        <_>
          <_>
            <feature>
              <rects>
                <_>
                  6 2 8 10 -1.</_>
                <_>
                  6 2 4 5 2.</_>
                <_>
                  10 7 4 5 2.</_></rects>
              <tilted>0</tilted></feature>
            <threshold>1.2505350168794394e-003</threshold>
            <left_val>-0.5865641832351685</left_val>
            <right_val>0.3267414867877960</right_val></_></_></trees>
      <stage_threshold>-2.0667939186096191</stage_threshold>
      <parent>7</parent>
      <next>-1</next></_>
    <_>
      <trees>
        <_>
          <_>
            <feature>
              <rects>
                <_>
                  3 9 12 10 -1.</_>
                <_>
                  3 9 6 5 2.</_>
                <_>
                  9 14 6 5 2.</_></rects>
              <tilted>0</tilted></feature>
            <threshold>-7.2719412855803967e-004</threshold>
            <left_val>0.2878527045249939</left_val>
            <right_val>-0.7164059281349182</right_val></_></_>
        <_>
          <_>
            <feature>
              <rects>
                <_>
                  11 3 2 15 -1.</_>
                <_>
                  11 8 2 5 3.</_></rects>
              <tilted>0</tilted></feature>
            <threshold>9.1927277389913797e-004</threshold>
            <left_val>-0.8510736823081970</left_val>
            <right_val>0.0721404924988747</right_val></_></_>
        <_>
          <_>
            <feature>
              <rects>
                <_>
                  0 3 2 15 -1.</_>
                <_>
                  1 3 1 15 2.</_></rects>
              <tilted>0</tilted></feature>
            <threshold>0.0132128298282623</threshold>
            <left_val>-0.4794416129589081</left_val>
            <right_val>0.2766005098819733</right_val></_></_>
        <_>
          <_>
            <feature>
              <rects>
                <_>
                  11 3 2 15 -1.</_>
                <_>
                  11 8 2 5 3.</_></rects>
              <tilted>0</tilted></feature>
            <threshold>6.2463257927447557e-004</threshold>
            <left_val>-0.7083461284637451</left_val>
            <right_val>0.0538110099732876</right_val></_></_>
        <_>
          <_>
            <feature>
              <rects>
                <_>
                  0 1 8 6 -1.</_>
                <_>
                  0 1 4 3 2.</_>
                <_>
                  4 4 4 3 2.</_></rects>
              <tilted>0</tilted></feature>
            <threshold>-0.0155182396993041</threshold>
            <left_val>0.3641056120395660</left_val>
            <right_val>-0.4472166001796722</right_val></_></_>
        <_>
          <_>
            <feature>
              <rects>
                <_>
                  6 0 9 13 -1.</_>
                <_>
                  9 0 3 13 3.</_></rects>
              <tilted>0</tilted></feature>
            <threshold>-0.0108268000185490</threshold>
            <left_val>0.2700602114200592</left_val>
            <right_val>-0.4572309851646423</right_val></_></_>
        <_>
          <_>
            <feature>
              <rects>
                <_>
                  3 8 7 6 -1.</_>
                <_>
                  3 10 7 2 3.</_></rects>
              <tilted>0</tilted></feature>
            <threshold>0.0612495094537735</threshold>
            <left_val>-0.2165340036153793</left_val>
            <right_val>0.4938625097274780</right_val></_></_>
        <_>
          <_>
            <feature>
              <rects>
                <_>
                  4 18 12 2 -1.</_>
                <_>
                  4 19 12 1 2.</_></rects>
              <tilted>0</tilted></feature>
            <threshold>-8.6121214553713799e-003</threshold>
            <left_val>0.2878378927707672</left_val>
            <right_val>-0.4502677023410797</right_val></_></_>
        <_>
          <_>
            <feature>
              <rects>
                <_>
                  4 0 12 2 -1.</_>
                <_>
                  4 1 12 1 2.</_></rects>
              <tilted>0</tilted></feature>
            <threshold>0.0110387904569507</threshold>
            <left_val>-0.3487173020839691</left_val>
            <right_val>0.3391135931015015</right_val></_></_>
        <_>
          <_>
            <feature>
              <rects>
                <_>
                  4 17 12 2 -1.</_>
                <_>
                  4 17 6 2 2.</_></rects>
              <tilted>0</tilted></feature>
            <threshold>-0.0315104015171528</threshold>
            <left_val>0.6443938016891480</left_val>
            <right_val>-0.2118539065122604</right_val></_></_>
        <_>
          <_>
            <feature>
              <rects>
                <_>
                  1 12 6 4 -1.</_>
                <_>
                  1 12 3 2 2.</_>
                <_>
                  4 14 3 2 2.</_></rects>
              <tilted>0</tilted></feature>
            <threshold>-6.9339140318334103e-003</threshold>
            <left_val>0.4174587130546570</left_val>
            <right_val>-0.3126283884048462</right_val></_></_>
        <_>
          <_>
            <feature>
              <rects>
                <_>
                  9 9 4 6 -1.</_>
                <_>
                  9 11 4 2 3.</_></rects>
              <tilted>0</tilted></feature>
            <threshold>-6.5577421337366104e-003</threshold>
            <left_val>0.3201985061168671</left_val>
            <right_val>-0.1862936019897461</right_val></_></_>
        <_>
          <_>
            <feature>
              <rects>
                <_>
                  4 7 5 6 -1.</_>
                <_>
                  4 9 5 2 3.</_></rects>
              <tilted>0</tilted></feature>
            <threshold>-0.0137870199978352</threshold>
            <left_val>0.6527503132820129</left_val>
            <right_val>-0.1610129028558731</right_val></_></_>
        <_>
          <_>
            <feature>
              <rects>
                <_>
                  13 8 6 6 -1.</_>
                <_>
                  16 8 3 3 2.</_>
                <_>
                  13 11 3 3 2.</_></rects>
              <tilted>0</tilted></feature>
            <threshold>-0.0474198982119560</threshold>
            <left_val>0.7245299816131592</left_val>
            <right_val>-0.0616601407527924</right_val></_></_>
        <_>
          <_>
            <feature>
              <rects>
                <_>
                  1 8 6 6 -1.</_>
                <_>
                  1 8 3 3 2.</_>
                <_>
                  4 11 3 3 2.</_></rects>
              <tilted>0</tilted></feature>
            <threshold>-0.0351040996611118</threshold>
            <left_val>0.6781374812126160</left_val>
            <right_val>-0.1988219022750855</right_val></_></_>
        <_>
          <_>
            <feature>
              <rects>
                <_>
                  10 9 4 3 -1.</_>
                <_>
                  10 10 4 1 3.</_></rects>
              <tilted>0</tilted></feature>
            <threshold>9.2766191810369492e-003</threshold>
            <left_val>-0.1786385029554367</left_val>
            <right_val>0.3174864947795868</right_val></_></_>
        <_>
          <_>
            <feature>
              <rects>
                <_>
                  6 9 3 3 -1.</_>
                <_>
                  6 10 3 1 3.</_></rects>
              <tilted>0</tilted></feature>
            <threshold>7.0674312300980091e-003</threshold>
            <left_val>-0.2878274917602539</left_val>
            <right_val>0.3646897077560425</right_val></_></_>
        <_>
          <_>
            <feature>
              <rects>
                <_>
                  4 1 16 3 -1.</_>
                <_>
                  4 2 16 1 3.</_></rects>
              <tilted>0</tilted></feature>
            <threshold>3.8182009011507034e-003</threshold>
            <left_val>-0.3916605114936829</left_val>
            <right_val>0.1559372991323471</right_val></_></_>
        <_>
          <_>
            <feature>
              <rects>
                <_>
                  0 1 15 18 -1.</_>
                <_>
                  0 7 15 6 3.</_></rects>
              <tilted>0</tilted></feature>
            <threshold>0.0200524590909481</threshold>
            <left_val>-0.6633859276771545</left_val>
            <right_val>0.1409924030303955</right_val></_></_>
        <_>
          <_>
            <feature>
              <rects>
                <_>
                  14 7 6 2 -1.</_>
                <_>
                  17 7 3 1 2.</_>
                <_>
                  14 8 3 1 2.</_></rects>
              <tilted>0</tilted></feature>
            <threshold>2.8736409731209278e-003</threshold>
            <left_val>-0.3850671052932739</left_val>
            <right_val>0.2718900144100189</right_val></_></_>
        <_>
          <_>
            <feature>
              <rects>
                <_>
                  0 7 6 2 -1.</_>
                <_>
                  0 7 3 1 2.</_>
                <_>
                  3 8 3 1 2.</_></rects>
              <tilted>0</tilted></feature>
            <threshold>9.8489422816783190e-004</threshold>
            <left_val>-0.4818413853645325</left_val>
            <right_val>0.2798781096935272</right_val></_></_>
        <_>
          <_>
            <feature>
              <rects>
                <_>
                  8 6 4 9 -1.</_>
                <_>
                  8 9 4 3 3.</_></rects>
              <tilted>0</tilted></feature>
            <threshold>8.2495470996946096e-004</threshold>
            <left_val>-0.9236068725585938</left_val>
            <right_val>0.0992641896009445</right_val></_></_>
        <_>
          <_>
            <feature>
              <rects>
                <_>
                  2 16 13 2 -1.</_>
                <_>
                  2 17 13 1 2.</_></rects>
              <tilted>0</tilted></feature>
            <threshold>2.2137409541755915e-004</threshold>
            <left_val>-0.6807584166526794</left_val>
            <right_val>0.1350200027227402</right_val></_></_>
        <_>
          <_>
            <feature>
              <rects>
                <_>
                  4 6 12 9 -1.</_>
                <_>
                  4 9 12 3 3.</_></rects>
              <tilted>0</tilted></feature>
            <threshold>8.0246739089488983e-003</threshold>
            <left_val>-0.9319117069244385</left_val>
            <right_val>0.0773005485534668</right_val></_></_>
        <_>
          <_>
            <feature>
              <rects>
                <_>
                  1 9 14 3 -1.</_>
                <_>
                  8 9 7 3 2.</_></rects>
              <tilted>0</tilted></feature>
            <threshold>6.0794620367232710e-005</threshold>
            <left_val>-0.7958484292030335</left_val>
            <right_val>0.0769207328557968</right_val></_></_>
        <_>
          <_>
            <feature>
              <rects>
                <_>
                  7 12 6 2 -1.</_>
                <_>
                  9 12 2 2 3.</_></rects>
              <tilted>0</tilted></feature>
            <threshold>-2.3470239248126745e-003</threshold>
            <left_val>0.2640503942966461</left_val>
            <right_val>-0.6139104962348938</right_val></_></_>
        <_>
          <_>
            <feature>
              <rects>
                <_>
                  3 0 2 9 -1.</_>
                <_>
                  3 3 2 3 3.</_></rects>
              <tilted>0</tilted></feature>
            <threshold>8.2835630746558309e-004</threshold>
            <left_val>-0.4092118144035339</left_val>
            <right_val>0.3797590136528015</right_val></_></_>
        <_>
          <_>
            <feature>
              <rects>
                <_>
                  6 4 8 12 -1.</_>
                <_>
                  6 8 8 4 3.</_></rects>
              <tilted>0</tilted></feature>
            <threshold>8.4041710942983627e-003</threshold>
            <left_val>-0.9134330749511719</left_val>
            <right_val>0.1164937019348145</right_val></_></_>
        <_>
          <_>
            <feature>
              <rects>
                <_>
                  2 2 13 2 -1.</_>
                <_>
                  2 3 13 1 2.</_></rects>
              <tilted>0</tilted></feature>
            <threshold>-2.0407540432643145e-004</threshold>
            <left_val>0.1674591004848480</left_val>
            <right_val>-0.6321225166320801</right_val></_></_>
        <_>
          <_>
            <feature>
              <rects>
                <_>
                  17 10 2 1 -1.</_>
                <_>
                  17 10 1 1 2.</_></rects>
              <tilted>0</tilted></feature>
            <threshold>-6.3586921896785498e-004</threshold>
            <left_val>0.4349843859672546</left_val>
            <right_val>-0.2060455977916718</right_val></_></_>
        <_>
          <_>
            <feature>
              <rects>
                <_>
                  4 13 10 4 -1.</_>
                <_>
                  4 13 5 2 2.</_>
                <_>
                  9 15 5 2 2.</_></rects>
              <tilted>0</tilted></feature>
            <threshold>-1.1297740275040269e-004</threshold>
            <left_val>0.3238975107669830</left_val>
            <right_val>-0.3623681068420410</right_val></_></_>
        <_>
          <_>
            <feature>
              <rects>
                <_>
                  5 0 12 4 -1.</_>
                <_>
                  5 2 12 2 2.</_></rects>
              <tilted>0</tilted></feature>
            <threshold>0.0232491903007030</threshold>
            <left_val>-0.2603928148746491</left_val>
            <right_val>0.3809838891029358</right_val></_></_>
        <_>
          <_>
            <feature>
              <rects>
                <_>
                  1 10 2 1 -1.</_>
                <_>
                  2 10 1 1 2.</_></rects>
              <tilted>0</tilted></feature>
            <threshold>3.1237959046848118e-004</threshold>
            <left_val>-0.4495866000652313</left_val>
            <right_val>0.2607755959033966</right_val></_></_>
        <_>
          <_>
            <feature>
              <rects>
                <_>
                  12 14 6 2 -1.</_>
                <_>
                  15 14 3 1 2.</_>
                <_>
                  12 15 3 1 2.</_></rects>
              <tilted>0</tilted></feature>
            <threshold>-1.7076840158551931e-003</threshold>
            <left_val>0.1650253981351852</left_val>
            <right_val>-0.2364871948957443</right_val></_></_>
        <_>
          <_>
            <feature>
              <rects>
                <_>
                  2 14 6 2 -1.</_>
                <_>
                  2 14 3 1 2.</_>
                <_>
                  5 15 3 1 2.</_></rects>
              <tilted>0</tilted></feature>
            <threshold>-7.6143501792103052e-004</threshold>
            <left_val>0.4146375954151154</left_val>
            <right_val>-0.3239135146141052</right_val></_></_>
        <_>
          <_>
            <feature>
              <rects>
                <_>
                  12 18 8 2 -1.</_>
                <_>
                  12 18 4 2 2.</_></rects>
              <tilted>0</tilted></feature>
            <threshold>5.3233341313898563e-003</threshold>
            <left_val>-0.1824171990156174</left_val>
            <right_val>0.2903453111648560</right_val></_></_>
        <_>
          <_>
            <feature>
              <rects>
                <_>
                  5 1 9 1 -1.</_>
                <_>
                  8 1 3 1 3.</_></rects>
              <tilted>0</tilted></feature>
            <threshold>-2.5104340165853500e-003</threshold>
            <left_val>0.3409430980682373</left_val>
            <right_val>-0.3966639041900635</right_val></_></_>
        <_>
          <_>
            <feature>
              <rects>
                <_>
                  12 18 8 2 -1.</_>
                <_>
                  12 18 4 2 2.</_></rects>
              <tilted>0</tilted></feature>
            <threshold>-2.2622710093855858e-003</threshold>
            <left_val>0.2404333055019379</left_val>
            <right_val>-0.1296679973602295</right_val></_></_>
        <_>
          <_>
            <feature>
              <rects>
                <_>
                  0 18 8 2 -1.</_>
                <_>
                  4 18 4 2 2.</_></rects>
              <tilted>0</tilted></feature>
            <threshold>3.1558811315335333e-004</threshold>
            <left_val>-0.3735190927982330</left_val>
            <right_val>0.3100615143775940</right_val></_></_>
        <_>
          <_>
            <feature>
              <rects>
                <_>
                  17 12 1 3 -1.</_>
                <_>
                  17 13 1 1 3.</_></rects>
              <tilted>0</tilted></feature>
            <threshold>-3.1786870677024126e-003</threshold>
            <left_val>-0.5396664738655090</left_val>
            <right_val>-9.1610467061400414e-003</right_val></_></_>
        <_>
          <_>
            <feature>
              <rects>
                <_>
                  2 12 1 3 -1.</_>
                <_>
                  2 13 1 1 3.</_></rects>
              <tilted>0</tilted></feature>
            <threshold>2.2353360691340640e-005</threshold>
            <left_val>-0.3216213881969452</left_val>
            <right_val>0.3578800857067108</right_val></_></_>
        <_>
          <_>
            <feature>
              <rects>
                <_>
                  18 7 2 13 -1.</_>
                <_>
                  18 7 1 13 2.</_></rects>
              <tilted>0</tilted></feature>
            <threshold>1.4588859630748630e-003</threshold>
            <left_val>-0.4075283110141754</left_val>
            <right_val>0.2100100964307785</right_val></_></_>
        <_>
          <_>
            <feature>
              <rects>
                <_>
                  0 7 2 13 -1.</_>
                <_>
                  1 7 1 13 2.</_></rects>
              <tilted>0</tilted></feature>
            <threshold>1.5512149548158050e-003</threshold>
            <left_val>-0.6453483104705811</left_val>
            <right_val>0.2309183031320572</right_val></_></_>
        <_>
          <_>
            <feature>
              <rects>
                <_>
                  5 11 15 6 -1.</_>
                <_>
                  5 13 15 2 3.</_></rects>
              <tilted>0</tilted></feature>
            <threshold>-3.4397901035845280e-003</threshold>
            <left_val>0.1492767035961151</left_val>
            <right_val>-0.5858222842216492</right_val></_></_>
        <_>
          <_>
            <feature>
              <rects>
                <_>
                  5 9 10 10 -1.</_>
                <_>
                  5 14 10 5 2.</_></rects>
              <tilted>0</tilted></feature>
            <threshold>-5.0678979605436325e-003</threshold>
            <left_val>0.1710212975740433</left_val>
            <right_val>-0.6272503137588501</right_val></_></_>
        <_>
          <_>
            <feature>
              <rects>
                <_>
                  9 12 5 6 -1.</_>
                <_>
                  9 14 5 2 3.</_></rects>
              <tilted>0</tilted></feature>
            <threshold>4.5977729314472526e-005</threshold>
            <left_val>-0.1509611010551453</left_val>
            <right_val>0.3532870113849640</right_val></_></_>
        <_>
          <_>
            <feature>
              <rects>
                <_>
                  2 16 4 2 -1.</_>
                <_>
                  2 16 2 1 2.</_>
                <_>
                  4 17 2 1 2.</_></rects>
              <tilted>0</tilted></feature>
            <threshold>-2.1801399998366833e-004</threshold>
            <left_val>0.3723948001861572</left_val>
            <right_val>-0.2751126885414124</right_val></_></_>
        <_>
          <_>
            <feature>
              <rects>
                <_>
                  4 1 13 6 -1.</_>
                <_>
                  4 4 13 3 2.</_></rects>
              <tilted>0</tilted></feature>
            <threshold>-1.1626309715211391e-003</threshold>
            <left_val>0.1847538053989410</left_val>
            <right_val>-0.3553667068481445</right_val></_></_></trees>
      <stage_threshold>-1.8650360107421875</stage_threshold>
      <parent>8</parent>
      <next>-1</next></_>
    <_>
      <trees>
        <_>
          <_>
            <feature>
              <rects>
                <_>
                  8 7 3 6 -1.</_>
                <_>
                  8 9 3 2 3.</_></rects>
              <tilted>0</tilted></feature>
            <threshold>0.0419841818511486</threshold>
            <left_val>-0.2407763004302979</left_val>
            <right_val>0.4438089132308960</right_val></_></_>
        <_>
          <_>
            <feature>
              <rects>
                <_>
                  9 8 3 6 -1.</_>
                <_>
                  9 10 3 2 3.</_></rects>
              <tilted>0</tilted></feature>
            <threshold>0.0423918813467026</threshold>
            <left_val>-0.1655797064304352</left_val>
            <right_val>0.4155766963958740</right_val></_></_>
        <_>
          <_>
            <feature>
              <rects>
                <_>
                  2 18 15 2 -1.</_>
                <_>
                  2 19 15 1 2.</_></rects>
              <tilted>0</tilted></feature>
            <threshold>-0.0143418302759528</threshold>
            <left_val>0.2992362976074219</left_val>
            <right_val>-0.3159180879592896</right_val></_></_>
        <_>
          <_>
            <feature>
              <rects>
                <_>
                  13 5 6 4 -1.</_>
                <_>
                  16 5 3 2 2.</_>
                <_>
                  13 7 3 2 2.</_></rects>
              <tilted>0</tilted></feature>
            <threshold>9.9102063104510307e-003</threshold>
            <left_val>-0.4371921122074127</left_val>
            <right_val>0.3012341856956482</right_val></_></_>
        <_>
          <_>
            <feature>
              <rects>
                <_>
                  1 7 6 6 -1.</_>
                <_>
                  1 7 3 3 2.</_>
                <_>
                  4 10 3 3 2.</_></rects>
              <tilted>0</tilted></feature>
            <threshold>-0.0346903391182423</threshold>
            <left_val>0.7157133221626282</left_val>
            <right_val>-0.1389140933752060</right_val></_></_>
        <_>
          <_>
            <feature>
              <rects>
                <_>
                  15 7 4 4 -1.</_>
                <_>
                  17 7 2 2 2.</_>
                <_>
                  15 9 2 2 2.</_></rects>
              <tilted>0</tilted></feature>
            <threshold>0.0103531200438738</threshold>
            <left_val>-0.1643519997596741</left_val>
            <right_val>0.3721131086349487</right_val></_></_>
        <_>
          <_>
            <feature>
              <rects>
                <_>
                  1 7 4 4 -1.</_>
                <_>
                  1 7 2 2 2.</_>
                <_>
                  3 9 2 2 2.</_></rects>
              <tilted>0</tilted></feature>
            <threshold>5.2660061046481133e-003</threshold>
            <left_val>-0.3825199007987976</left_val>
            <right_val>0.3007104098796845</right_val></_></_>
        <_>
          <_>
            <feature>
              <rects>
                <_>
                  17 5 3 10 -1.</_>
                <_>
                  18 5 1 10 3.</_></rects>
              <tilted>0</tilted></feature>
            <threshold>0.0106425201520324</threshold>
            <left_val>-0.4050833880901337</left_val>
            <right_val>0.3814733028411865</right_val></_></_>
        <_>
          <_>
            <feature>
              <rects>
                <_>
                  7 3 1 15 -1.</_>
                <_>
                  7 8 1 5 3.</_></rects>
              <tilted>0</tilted></feature>
            <threshold>4.3909039231948555e-004</threshold>
            <left_val>-0.6930509209632874</left_val>
            <right_val>0.1715697944164276</right_val></_></_>
        <_>
          <_>
            <feature>
              <rects>
                <_>
                  17 5 3 11 -1.</_>
                <_>
                  18 5 1 11 3.</_></rects>
              <tilted>0</tilted></feature>
            <threshold>2.4175980070140213e-004</threshold>
            <left_val>-0.3886416852474213</left_val>
            <right_val>0.0426835604012012</right_val></_></_>
        <_>
          <_>
            <feature>
              <rects>
                <_>
                  0 5 3 11 -1.</_>
                <_>
                  1 5 1 11 3.</_></rects>
              <tilted>0</tilted></feature>
            <threshold>3.6568080540746450e-003</threshold>
            <left_val>-0.4817126095294952</left_val>
            <right_val>0.3045130074024200</right_val></_></_>
        <_>
          <_>
            <feature>
              <rects>
                <_>
                  6 9 14 8 -1.</_>
                <_>
                  13 9 7 4 2.</_>
                <_>
                  6 13 7 4 2.</_></rects>
              <tilted>0</tilted></feature>
            <threshold>-3.3792670001275837e-004</threshold>
            <left_val>0.1366229951381683</left_val>
            <right_val>-0.5874559283256531</right_val></_></_>
        <_>
          <_>
            <feature>
              <rects>
                <_>
                  2 0 16 2 -1.</_>
                <_>
                  2 1 16 1 2.</_></rects>
              <tilted>0</tilted></feature>
            <threshold>5.0443108193576336e-004</threshold>
            <left_val>-0.5469499230384827</left_val>
            <right_val>0.2493246048688889</right_val></_></_>
        <_>
          <_>
            <feature>
              <rects>
                <_>
                  5 9 14 8 -1.</_>
                <_>
                  12 9 7 4 2.</_>
                <_>
                  5 13 7 4 2.</_></rects>
              <tilted>0</tilted></feature>
            <threshold>0.0101236701011658</threshold>
            <left_val>-0.2795574069023132</left_val>
            <right_val>0.3876936137676239</right_val></_></_>
        <_>
          <_>
            <feature>
              <rects>
                <_>
                  5 5 10 12 -1.</_>
                <_>
                  5 9 10 4 3.</_></rects>
              <tilted>0</tilted></feature>
            <threshold>1.0985840344801545e-003</threshold>
            <left_val>-0.9693651795387268</left_val>
            <right_val>0.1488718986511231</right_val></_></_>
        <_>
          <_>
            <feature>
              <rects>
                <_>
                  4 10 12 9 -1.</_>
                <_>
                  4 13 12 3 3.</_></rects>
